#ifndef HAR_WEIGHTS_H
#define HAR_WEIGHTS_H

static const float conv_weights[192] = {
    -0.319535f, 0.288651f, -0.035160f, -0.090676f, 0.250463f, -0.235209f, -0.181203f, -0.058189f, 
    0.283198f, 0.195316f, -0.274186f, -0.184772f, 0.178572f, 0.291679f, 0.035442f, -0.004146f, 
    0.253396f, -0.142013f, 0.111856f, -0.316826f, 0.483398f, -0.002044f, 0.007594f, -0.038287f, 
    -0.175167f, -0.190985f, 0.066467f, 0.003984f, 0.130477f, -0.330841f, 0.425091f, 0.032963f, 
    -0.319818f, 0.099339f, -0.382933f, -0.080004f, -0.024947f, -0.397413f, -0.280769f, 0.426366f, 
    -0.081290f, 0.156800f, 0.364116f, 0.495140f, -0.294087f, -0.392493f, 0.013412f, -0.203889f, 
    -0.312331f, 0.033536f, -0.174395f, 0.148008f, 0.079123f, -0.160954f, 0.012727f, -0.205136f, 
    0.014563f, 0.370064f, -0.033906f, -0.105163f, 0.270170f, 0.048994f, -0.034997f, 0.234461f, 
    0.240670f, 0.320228f, -0.028553f, 0.063526f, 0.067609f, -0.176217f, 0.070947f, 0.186006f, 
    0.179124f, -0.085274f, 0.185835f, -0.351502f, 0.254684f, -0.066858f, 0.242535f, 0.059904f, 
    0.010301f, 0.176762f, -0.562428f, 0.297602f, -0.081999f, -0.185455f, -0.425665f, 0.260658f, 
    -0.017636f, -0.329431f, -0.076659f, 0.151262f, -0.033913f, -0.262301f, -0.260158f, -0.408588f, 
    0.102616f, 0.177028f, 0.060777f, -0.180282f, 0.350838f, 0.069358f, -0.176151f, 0.366293f, 
    0.257494f, 0.047979f, 0.157900f, -0.201736f, 0.022861f, -0.222754f, -0.043447f, -0.116154f, 
    0.110029f, 0.068271f, -0.191683f, 0.169532f, 0.103509f, 0.117672f, -0.081406f, 0.089036f, 
    -0.130497f, 0.232334f, 0.244086f, -0.347680f, -0.131268f, -0.299829f, 0.309026f, 0.510701f, 
    0.162744f, 0.070002f, -0.478718f, 0.535339f, 0.147076f, -0.600631f, -0.327700f, 0.074398f, 
    0.386504f, 0.031870f, 0.023641f, 0.588456f, -0.271905f, -0.366756f, 0.087420f, -0.276902f, 
    -0.052800f, 0.224618f, 0.300845f, 0.150979f, 0.407009f, 0.389167f, 0.417553f, 0.010597f, 
    -0.034146f, 0.306364f, 0.324172f, 0.287318f, 0.007140f, -0.143287f, 0.215566f, 0.028054f, 
    0.454612f, -0.097704f, -0.018705f, 0.231874f, 0.196361f, 0.180245f, 0.111607f, -0.047210f, 
    0.253478f, 0.034262f, -0.360387f, -0.000969f, 0.272097f, -0.038850f, 0.010706f, 0.466390f, 
    0.106061f, 0.007575f, -0.139765f, 0.239499f, 0.090685f, -0.167312f, -0.183680f, 0.386934f, 
    -0.091822f, -0.154314f, 0.389892f, 0.295537f, 0.030457f, -0.008671f, 0.051532f, 0.101773f
};

static const float conv_biases[8] = {
    0.210500f, 0.114753f, -0.122763f, -0.037615f, 0.191515f, -0.087506f, -0.062549f, -0.074470f
};

static const float dense_weights[720] = {
    0.151653f, -0.111438f, -0.097131f, 0.223186f, -0.096957f, -0.056294f, -0.195327f, -0.023502f, 
    0.081557f, -0.097633f, 0.268384f, -0.028453f, 0.113411f, -0.103695f, -0.100437f, -0.074568f, 
    0.223322f, -0.086913f, -0.044112f, 0.201462f, -0.043172f, -0.034253f, 0.101196f, -0.064569f, 
    0.141695f, -0.214248f, 0.000053f, 0.045518f, 0.020326f, -0.208141f, 0.002455f, 0.142489f, 
    -0.059790f, -0.223453f, 0.073386f, -0.203077f, 0.138880f, 0.083786f, -0.054960f, -0.167153f, 
    0.013520f, -0.101960f, -0.022621f, 0.244247f, -0.007802f, -0.054062f, 0.077524f, -0.090334f, 
    0.104329f, -0.284445f, 0.021248f, 0.205863f, 0.067416f, -0.001813f, -0.161975f, 0.063429f, 
    -0.197467f, -0.241095f, 0.245841f, -0.049026f, -0.016504f, -0.005011f, 0.048764f, -0.113479f, 
    0.119664f, 0.046855f, -0.233582f, 0.238812f, -0.197843f, -0.195525f, 0.158295f, 0.065928f, 
    0.307064f, -0.302611f, -0.157439f, 0.218491f, -0.152804f, -0.138386f, -0.201181f, 0.126276f, 
    -0.112567f, -0.354033f, 0.146968f, -0.145619f, 0.193608f, -0.102888f, -0.197389f, -0.267741f, 
    0.019818f, -0.101770f, 0.054627f, 0.109373f, 0.071317f, -0.143327f, -0.037957f, -0.136446f, 
    0.206841f, -0.064874f, -0.217446f, 0.153245f, 0.139252f, -0.046097f, -0.211090f, 0.184777f, 
    -0.103475f, -0.074810f, 0.271246f, 0.023590f, 0.226506f, 0.058683f, 0.052924f, -0.046074f, 
    0.159907f, -0.137437f, -0.199217f, 0.015232f, -0.128328f, -0.205979f, 0.114214f, 0.048380f, 
    0.076323f, -0.308880f, -0.008120f, -0.003780f, 0.070184f, 0.082102f, -0.025671f, 0.149849f, 
    -0.094499f, -0.349495f, 0.188493f, 0.060349f, 0.052046f, -0.074957f, -0.030039f, -0.226465f, 
    0.086971f, -0.085244f, -0.237865f, 0.013740f, -0.138407f, -0.153960f, 0.148545f, -0.115739f, 
    0.179622f, -0.168216f, -0.122207f, 0.074525f, -0.135102f, -0.054022f, -0.221428f, 0.239439f, 
    0.091027f, -0.173687f, 0.126702f, -0.062498f, -0.013532f, -0.008203f, -0.036388f, -0.257167f, 
    -0.011395f, -0.137729f, -0.053641f, 0.143697f, -0.114242f, -0.171686f, -0.016649f, -0.072578f, 
    0.130301f, -0.068933f, -0.137944f, 0.056136f, 0.073152f, -0.069077f, -0.030672f, 0.236855f, 
    -0.007022f, -0.216860f, 0.247439f, -0.092635f, 0.253088f, 0.030071f, -0.063871f, -0.106587f, 
    0.203661f, 0.075850f, -0.258390f, 0.243697f, -0.156584f, 0.032140f, 0.028028f, -0.055562f, 
    0.125917f, -0.180083f, -0.154150f, -0.012292f, 0.087845f, -0.188717f, -0.046293f, 0.240066f, 
    -0.000500f, -0.243143f, 0.271897f, -0.202177f, -0.028916f, -0.147121f, -0.039218f, -0.228439f, 
    -0.016475f, 0.062378f, -0.179683f, 0.220316f, -0.129052f, -0.086488f, 0.195309f, 0.041899f, 
    0.276874f, -0.245121f, -0.210004f, 0.074553f, -0.154062f, -0.160760f, -0.033905f, 0.019387f, 
    -0.087780f, -0.137802f, 0.271280f, -0.045622f, 0.117430f, 0.089606f, -0.184981f, -0.157829f, 
    0.019966f, -0.214513f, -0.304586f, 0.062838f, -0.192867f, -0.135261f, -0.061457f, 0.007789f, 
    0.150973f, -0.270815f, -0.166815f, 0.053496f, -0.107239f, -0.019915f, -0.134257f, 0.269184f, 
    -0.152577f, -0.079835f, 0.154724f, -0.146672f, 0.133330f, 0.104807f, -0.129622f, -0.186003f, 
    0.071178f, -0.119908f, -0.075584f, 0.232078f, 0.064984f, -0.204236f, 0.138168f, -0.029223f, 
    0.263534f, -0.125677f, -0.205687f, 0.073939f, 0.044288f, -0.045571f, -0.289491f, 0.000223f, 
    0.080572f, -0.353926f, 0.099066f, -0.240990f, 0.268356f, 0.108300f, 0.096191f, -0.005454f, 
    -0.023102f, 0.030860f, -0.302525f, 0.206801f, -0.155662f, -0.032662f, 0.230740f, -0.166758f, 
    0.230277f, -0.269395f, -0.150336f, 0.032854f, -0.035606f, 0.032978f, -0.210825f, 0.197047f, 
    -0.090129f, -0.200568f, 0.205351f, -0.077652f, 0.149832f, 0.039314f, 0.071920f, -0.266914f, 
    -0.002445f, -0.061864f, -0.071164f, 0.158315f, 0.046503f, -0.061646f, -0.003866f, 0.059828f, 
    0.027760f, -0.044754f, -0.099834f, 0.230142f, -0.028212f, -0.087202f, -0.259805f, 0.217776f, 
    -0.096655f, -0.248118f, 0.131016f, -0.247677f, 0.238420f, 0.119403f, -0.103595f, -0.288841f, 
    0.064421f, -0.202499f, -0.197768f, 0.244782f, 0.088275f, -0.014109f, 0.127967f, -0.125723f, 
    0.124445f, -0.297643f, -0.168613f, -0.053405f, 0.020377f, 0.003110f, -0.153338f, 0.013110f, 
    0.025169f, -0.251342f, 0.242786f, -0.129962f, 0.006478f, -0.070245f, -0.120142f, -0.173014f, 
    0.157896f, 0.097904f, -0.154797f, 0.212081f, -0.018298f, -0.227666f, 0.197781f, -0.185710f, 
    0.247325f, -0.198475f, -0.160399f, 0.212105f, 0.000763f, -0.112569f, -0.087869f, 0.144258f, 
    -0.027465f, -0.161106f, 0.010443f, -0.270044f, 0.014597f, -0.020211f, 0.002467f, -0.232929f, 
    0.087362f, 0.074847f, -0.297534f, -0.000918f, -0.033290f, 0.019547f, 0.244256f, -0.169190f, 
    0.314124f, -0.028818f, -0.041717f, 0.213772f, -0.113020f, -0.118190f, -0.305328f, 0.112541f, 
    -0.065352f, -0.312320f, 0.248521f, -0.035421f, 0.026302f, -0.062918f, -0.199489f, -0.174623f, 
    0.083543f, -0.072605f, -0.090505f, 0.132598f, -0.044374f, -0.186360f, 0.279497f, 0.042109f, 
    0.145586f, -0.110454f, -0.194184f, 0.229677f, -0.097721f, -0.202054f, -0.102693f, 0.187822f, 
    -0.080861f, -0.286705f, 0.163782f, -0.114496f, 0.150554f, 0.097786f, -0.189393f, -0.215344f, 
    0.263520f, -0.168953f, -0.054548f, 0.034162f, 0.093291f, -0.211830f, 0.144373f, -0.024912f, 
    0.090991f, -0.250123f, -0.027848f, 0.057301f, 0.034274f, 0.000529f, -0.115104f, 0.007310f, 
    0.026382f, -0.222088f, 0.102417f, -0.082273f, 0.185304f, -0.081021f, -0.052740f, -0.217818f, 
    0.084296f, -0.053583f, -0.246855f, 0.267059f, 0.089493f, -0.126464f, -0.013855f, -0.017815f, 
    0.270526f, -0.137120f, -0.086083f, 0.134405f, 0.015915f, -0.076170f, -0.031720f, 0.145062f, 
    -0.077097f, -0.229674f, 0.246250f, -0.162695f, 0.069592f, -0.134631f, -0.164752f, -0.193247f, 
    0.177928f, -0.051720f, -0.068939f, 0.176682f, -0.094060f, -0.240245f, -0.013745f, -0.091772f, 
    0.145574f, -0.045622f, 0.033169f, 0.177352f, -0.035389f, -0.075866f, -0.212403f, 0.168531f, 
    -0.119223f, -0.134763f, 0.215479f, -0.006474f, 0.151755f, 0.091413f, 0.023545f, -0.260681f, 
    0.016422f, 0.058741f, -0.271873f, 0.262976f, 0.056893f, -0.052814f, 0.212448f, -0.173184f, 
    0.320868f, -0.139362f, 0.067884f, 0.118222f, -0.103249f, -0.081001f, -0.247638f, 0.178460f, 
    0.031223f, -0.123964f, 0.139008f, -0.126186f, 0.076214f, -0.057265f, -0.012611f, -0.221940f, 
    0.215653f, -0.021573f, -0.245156f, 0.152961f, -0.188765f, -0.101464f, -0.023770f, -0.032123f, 
    0.066391f, -0.304566f, -0.118350f, 0.130474f, -0.001880f, -0.176538f, -0.186241f, -0.012562f, 
    -0.012948f, -0.115873f, 0.180867f, -0.165111f, -0.033675f, -0.089512f, -0.165827f, -0.282061f, 
    0.156226f, -0.077259f, -0.193034f, 0.130417f, 0.010810f, -0.270903f, 0.223740f, -0.191232f, 
    0.021356f, -0.080351f, 0.071093f, 0.061574f, -0.089669f, -0.037338f, -0.000864f, 0.170637f, 
    0.075638f, -0.249425f, 0.273117f, -0.180206f, 0.211982f, -0.144786f, -0.100514f, -0.200445f, 
    0.091914f, -0.145363f, -0.137473f, 0.235923f, -0.025590f, -0.063379f, -0.013599f, 0.078600f, 
    0.082531f, -0.239186f, 0.060894f, -0.063537f, -0.031068f, 0.026939f, -0.133276f, -0.017549f, 
    0.050668f, -0.239826f, 0.325945f, -0.162572f, 0.026394f, -0.152823f, 0.096796f, -0.127351f, 
    0.100531f, 0.071754f, -0.083354f, 0.203542f, -0.132411f, -0.215069f, 0.122197f, -0.177384f, 
    0.206283f, -0.255505f, 0.082174f, 0.217687f, -0.008562f, -0.142676f, -0.154236f, 0.065895f, 
    0.030650f, -0.062626f, 0.166816f, -0.052067f, -0.003673f, -0.091401f, 0.031108f, -0.084428f, 
    0.232976f, -0.036030f, -0.176268f, 0.272920f, -0.088900f, -0.205081f, -0.027486f, -0.176340f, 
    0.236900f, -0.110074f, -0.119965f, 0.049052f, -0.070356f, -0.154512f, -0.054695f, 0.066683f, 
    -0.021818f, -0.055093f, 0.121295f, -0.199731f, 0.047258f, 0.021824f, 0.008849f, -0.078381f, 
    0.192413f, -0.100162f, -0.285207f, 0.051728f, -0.001122f, -0.139308f, 0.089226f, 0.019975f, 
    0.049845f, -0.041818f, -0.091005f, 0.120136f, 0.089518f, -0.174750f, -0.295418f, 0.141006f, 
    -0.130624f, -0.305012f, 0.175228f, -0.254084f, 0.081003f, -0.178201f, -0.025124f, -0.197307f, 
    0.034311f, -0.041372f, -0.139793f, 0.219600f, -0.126527f, -0.190199f, 0.149423f, -0.148506f, 
    0.066344f, -0.229116f, -0.125319f, 0.082770f, -0.095667f, -0.030435f, -0.109585f, -0.022946f, 
    -0.166408f, -0.238424f, 0.286956f, 0.016222f, -0.015449f, -0.140041f, -0.134841f, -0.317647f, 
    0.036592f, 0.018837f, -0.034711f, 0.163803f, -0.126929f, -0.074910f, 0.167579f, 0.090372f, 
    0.011219f, -0.275472f, -0.192502f, -0.015691f, 0.121353f, 0.072621f, -0.091633f, 0.015987f, 
    -0.109902f, -0.193206f, 0.086443f, -0.020764f, 0.179997f, 0.066143f, -0.020468f, -0.081109f, 
    0.032462f, -0.090499f, -0.174060f, 0.160526f, -0.218858f, -0.242680f, 0.145734f, -0.212157f
};

static const float dense_biases[3] = {
    0.181377f, -0.122233f, -0.093127f
};

#endif // HAR_WEIGHTS_H
